
\data\
ngram 1=12
ngram 2=77
ngram 3=42

\1-grams:
-0.6270623	0	-1.165098
-0.7004912	1	0
-1.359456	2	-1.218526
-0.9650043	3	-1.127541
-1.757396	4	-1.041772
-1.025002	5	-1.460522
-1.757396	6	-0.8642032
-1.643453	7	-0.08863733
-1.058426	8	-0.8648235
-1.017033	9	-1.105634
-1.113943	</s>
-99	<s>	-1.610146

\2-grams:
-1.227244	0 0	-0.007770127
-1.528274	0 1	-0.2446521
-0.8515801	0 2	0.06262255
-0.39794	0 3	0.01406545
-1.431364	0 4	0.1133855
-1.653213	0 5
-1.653213	0 6
-1.87743	0 8	-0.8732092
-0.6118198	0 9	-0.7781513
-1.528274	0 </s>
-0.4080372	1 0	-0.4351275
-1.44943	1 1	-0.03636773
-2.13864	1 2
-1.798586	1 3	-0.8508509
-2.13864	1 4
-1.798586	1 5
-1.798586	1 6	-0.8332988
-1.798586	1 7
-0.4604252	1 8	-0.705008
-0.8753986	1 9	0.1247177
-1.798586	1 </s>
-0.39794	2 1	-0.9792967
-1.48509	2 2
-1.48509	2 5
-0.9208187	2 7
-0.9208187	2 8
-1.145036	2 9
-0.69897	2 </s>
-0.2360892	3 0	-0.8325089
-1.31527	3 1
-1.879542	3 3
-1.879542	3 5
-1.190332	3 7
-1.31527	3 8
-1.093422	3 9
-0.8381492	3 </s>
-0.5228788	4 0
-1.08715	4 1
-1.08715	4 8
-0.30103	4 </s>
-1.819544	5 0
-0.07918125	5 1	-0.8719324
-1.819544	5 2
-1.47949	5 6
-1.819544	5 7
-1.130334	5 </s>
-0.7470961	6 0
-1.08715	6 5
-1.08715	6 6
-1.08715	6 7
-0.30103	6 </s>
-1.201094	7 0
-1.201094	7 1
-0.8610394	7 3	-0.8508509
-1.201094	7 4
-1.201094	7 5
-1.201094	7 6
-1.201094	7 7
-1.201094	7 8
-0.5118834	7 </s>
-0.1307683	8 0	-1.241842
-1.78612	8 1
-1.446066	8 2	-0.8220568
-1.78612	8 3
-1.78612	8 4
-1.78612	8 6
-1.78612	8 7
-1.78612	8 8
-1	8 </s>
-1.263241	9 0	-0.005701125
-0.08715018	9 1	-0.8623573
-1.827513	9 2
-1.487459	9 3	-0.8508509
-1.487459	9 4	-0.6179368
-1.827513	9 5
-1.827513	9 </s>
-0.009759837	<s> 5	-0.8750613

\3-grams:
-0.6578305	0 0 1
-0.6578305	0 0 3
-0.7403627	1 0 0
-1.398193	1 0 1
-0.7403627	1 0 2
-0.3646991	1 0 3
-1.98464	1 0 4
-1.398193	1 0 5
-0.05115252	3 0 9
-0.7346855	8 0 2
-0.1026623	8 0 3
-0.8183084	9 0 2
-0.3568005	0 1 3
-0.3568005	1 1 0
-0.04139268	2 1 9
-1.407953	5 1 6
-0.07342891	5 1 8
-1.312311	5 1 9
-0.04042866	9 1 0
-1.9944	9 1 1
-0.2787536	0 2 1
-1.619941	0 2 7
-1.619941	0 2 8
-1.033494	0 2 9
-0.05577049	8 2 </s>
-0.1760913	0 3 0
-2.073581	0 3 1
-1.391492	0 3 7
-2.073581	0 3 8
-1.033424	0 3 9
-0.05577049	1 3 </s>
-0.05577049	7 3 </s>
-0.05577049	9 3 </s>
-1.040157	0 4 0
-0.05577049	9 4 </s>
-0.009759837	<s> 5 1
-0.05577049	1 6 0
-0.05577049	0 8 </s>
-0.02286288	1 8 0
-0.01336396	0 9 1
-1.517278	1 9 0
-0.09691001	1 9 1

\end\
